tree
version=v3
num_class=1
num_tree_per_iteration=1
label_index=0
max_feature_idx=18
objective=binary sigmoid:1
feature_names=id age hypertension heart_disease avg_glucose_level bmi gender_Female gender_Male gender_Other ever_married_Yes work_type_Govt_job work_type_Never_worked work_type_Private work_type_Self-employed work_type_children Residence_type_Urban smoking_status_formerly_smoked smoking_status_never_smoked smoking_status_smokes
feature_infos=[6:72939] [0.080000000000000002:82] [0:1] [0:1] [55.009999999999998:281.58999999999997] [10.1:97.599999999999994] [0:1] [0:1] none [0:1] [0:1] [0:1] [0:1] [0:1] [0:1] [0:1] [0:1] [0:1] [0:1]
tree_sizes=1395 3364 1858 1307 3354 3380 3317 3331 3398 1642 3365 3381

Tree=0
num_leaves=12
num_cat=0
split_feature=9 16 16 7 7 7 18 6 18 7 18
split_gain=88880.2 5360.69 5236.85 1478.39 1091.85 976.961 876.001 1045.2 488.718 358.8 0.00995977
threshold=1.0000000180025095e-35 1.0000000180025095e-35 1.0000000180025095e-35 1.0000000180025095e-35 1.0000000180025095e-35 1.0000000180025095e-35 1.0000000180025095e-35 1.0000000180025095e-35 1.0000000180025095e-35 1.0000000180025095e-35 1.0000000180025095e-35
decision_type=2 2 2 2 2 2 2 2 2 2 2
left_child=2 5 6 -3 -4 10 7 -1 -7 -8 -2
right_child=1 3 4 -5 -6 8 9 -9 -10 -11 -12
leaf_value=-3.9949617354327995 -3.9926936366793959 -3.9923076563267714 -3.9938514197461221 -3.9918173949396802 -3.9927072576865208 -3.9925377169619281 -3.9944390415743904 -3.9945186101311969 -3.9922478238044183 -3.9937477552900731 -3.9926948560785145
leaf_weight=90.641071354970336 331.95308617502451 118.80870782211423 17.265738798305392 127.53309340961277 16.134338803589344 196.95079045183957 16.701548255980015 128.96149390377104 82.520503060892224 13.640201600268485 83.914185520261526
leaf_count=4416 8782 2693 653 2277 429 4909 728 5722 1822 502 2221
internal_value=0 31.8548 11.6541 35.8633 23.4146 30.4346 10.0825 9.38667 31.8806 15.119 29.4629
internal_weight=0 941.68 283.344 246.342 33.4001 695.339 249.944 219.603 279.471 30.3417 415.867
internal_count=35154 22704 12450 4970 1082 17734 11368 10138 6731 1230 11003
shrinkage=1


Tree=1
num_leaves=31
num_cat=0
split_feature=13 16 0 0 0 0 0 0 0 15 0 17 0 0 0 15 0 0 0 0 0 0 0 0 0 15 0 0 0 0
split_gain=38491.3 17681.6 2332.87 1912.38 1640.4 1716.28 1504.29 1369.97 1367.62 1055.27 990.467 879.112 804.775 2798.34 694.442 681.398 678.348 2436.55 1275.46 930.615 1034.98 667.121 1429.91 908.413 763.411 644.37 638.211 1838.07 1092.2 1470.74
threshold=1.0000000180025095e-35 1.0000000180025095e-35 39608.500000000007 11725.500000000002 4530.5000000000009 2530.5000000000005 72648.500000000015 33980.500000000007 839.50000000000011 1.0000000180025095e-35 5422.5000000000009 1.0000000180025095e-35 66902.500000000015 66013.500000000015 12853.500000000002 1.0000000180025095e-35 43048.500000000007 36553.500000000007 44229.500000000007 29382.500000000004 29680.000000000004 25118.500000000004 26232.500000000004 27678.500000000004 27123.500000000004 1.0000000180025095e-35 8581.0000000000018 18997.500000000004 26232.500000000004 28793.500000000004
decision_type=2 2 2 2 2 2 2 2 2 2 2 2 2 2 2 2 2 2 2 2 2 2 2 2 2 2 2 2 2 2
left_child=1 4 7 9 5 8 10 26 -1 -3 -6 -10 13 -4 -5 -7 17 19 25 21 -21 -12 -23 24 -24 -18 -2 -28 -29 -30
right_child=2 3 12 14 6 15 -8 -9 11 -11 16 -13 -14 -15 -16 -17 18 -19 -20 20 -22 22 23 -25 -26 -27 27 28 29 -31
leaf_value=0.00075930313405988593 0.0041104082078720306 0.001583795948538485 0.0032803431316680651 0.0043941800646046256 0.0030955127720424182 0.0012897041663208688 0.0038511786882622304 0.0044775460823349017 0.0017299254299783702 0.0029351749895131693 0.0021669350918995345 0.0030885514742024097 0.0027280622536638476 0.0049962767189306555 0.0033040338359678258 -0.00010184343620564232 0.0036309621297674092 0.0014723934764043405 0.0022366366180885029 0.0038010654469231046 0.0023884233326470945 0.00055174284674084403 0.0018587413311809706 0.0014405473699992438 0.0032184727362718959 0.0023640244921184126 0.0029968285936934364 0.0042631555795130255 0.001952106877734979 0.0038058952567975204
leaf_weight=6.317650921642783 43.913425074890256 9.682531826198101 86.861803798004985 6.0502605997025958 11.910767644643782 7.8192410022020322 5.505078697577118 36.828737642616034 8.9101157281547785 14.330952500924468 196.63214031048119 10.231506029143929 17.302272735163569 10.671431818976997 170.9178158082068 6.3982946407049894 10.202238291502001 55.294590244069695 288.48335883952677 5.5757639817893496 74.278955575078726 8.3239621892571432 8.3246951736509853 14.109066437929867 8.1926323473453504 6.6188743431121102 29.847361141815782 41.130359649658203 5.2975196149200228 22.275486217811704
leaf_count=302 653 384 1999 73 296 333 96 415 341 378 6681 255 492 66 3890 360 200 2256 9604 100 2362 415 308 580 194 212 770 550 191 398
internal_value=0 23.9673 37.0849 32.2768 21.6893 15.4358 22.0471 39.3388 20.3507 23.9028 21.9154 24.5613 33.5659 34.6809 33.413 6.63468 21.7561 20.8471 22.8599 21.9204 24.8706 20.9204 17.1394 20.2982 25.3317 31.3244 37.9333 36.5205 39.367 34.4973
internal_weight=0 934.11 294.128 200.982 733.129 39.6768 693.452 179.293 25.4593 24.0135 687.947 19.1416 114.836 97.5332 176.968 14.2175 676.036 370.732 305.304 315.437 79.8547 235.582 38.9504 30.6264 16.5173 16.8211 142.464 98.5507 68.7034 27.573
internal_count=35154 29620 5534 4725 24895 1591 23304 2977 898 762 23208 596 2557 2065 3963 693 22912 12896 10016 10640 2462 8178 1497 1082 502 412 2562 1909 1139 589
shrinkage=0.0001


Tree=2
num_leaves=16
num_cat=0
split_feature=14 2 6 10 10 18 10 18 6 10 6 18 6 6 18
split_gain=69589.4 30220 3964.1 3615.15 354.048 224.166 382.706 202.342 1664.06 200.091 136.274 50.9899 47.9777 33.4548 1.40474
threshold=1.0000000180025095e-35 1.0000000180025095e-35 1.0000000180025095e-35 1.0000000180025095e-35 1.0000000180025095e-35 1.0000000180025095e-35 1.0000000180025095e-35 1.0000000180025095e-35 1.0000000180025095e-35 1.0000000180025095e-35 1.0000000180025095e-35 1.0000000180025095e-35 1.0000000180025095e-35 1.0000000180025095e-35 1.0000000180025095e-35
decision_type=2 2 2 2 2 2 2 2 2 2 2 2 2 2 2
left_child=1 2 3 14 7 6 -4 13 -9 -7 -2 -5 -6 -3 -1
right_child=10 4 5 11 12 9 -8 8 -10 -11 -12 -13 -14 -15 -16
leaf_value=0.0030235953977280289 -0.00010184471514770109 0.0040401665982269519 0.0024270019112725798 0.0021025935131683019 0.0034877791001334765 0.0026954789521574873 0.0026779135076581691 0.0042973474866378905 0.0025937506447583363 0.0022503771717914335 0.00014486208231239073 0.0018286082402568366 0.0037694938397884849 0.0041346367361539014 0.0030074372256638769
leaf_weight=281.99142018891871 45.476022066548467 63.046672742813826 378.63627711497247 34.551108749583364 10.609167797490954 79.739470211789012 72.414719760417938 19.786974398419261 8.0730431377887744 11.564421961084006 44.104237109422684 8.4546151440590602 14.053067769855261 92.461187249049544 66.489892706274986
leaf_count=7156 2557 970 11837 1190 221 2284 2086 255 239 382 2372 314 254 1338 1699
internal_value=0 29.1407 26.7126 29.1376 40.0403 24.9621 24.6728 40.5187 38.0369 26.391 0.196197 20.4873 36.4831 40.9634 30.2051
internal_weight=0 1141.87 933.842 391.487 208.03 542.355 451.051 183.368 27.86 91.3039 89.5803 43.0057 24.6622 155.508 348.481
internal_count=35154 30225 26948 10359 3277 16589 13923 2802 494 2666 4929 1504 475 2308 8855
shrinkage=0.0001


Tree=3
num_leaves=11
num_cat=0
split_feature=9 3 3 13 13 10 13 10 10 13
split_gain=87544 32440.5 25020.5 13928 12348.8 839.32 84.4713 73.7156 55.0376 61.041
threshold=1.0000000180025095e-35 1.0000000180025095e-35 1.0000000180025095e-35 1.0000000180025095e-35 1.0000000180025095e-35 1.0000000180025095e-35 1.0000000180025095e-35 1.0000000180025095e-35 1.0000000180025095e-35 1.0000000180025095e-35
decision_type=2 2 2 2 2 2 2 2 2 2
left_child=2 4 3 5 7 -1 -4 -2 9 -3
right_child=1 8 6 -5 -6 -7 -8 -9 -10 -11
leaf_value=0.00061538331816241249 0.0026890546172129597 0.0046000157399754644 0.0045806913852726198 0.0030389581670636932 0.0035559944359993931 0.0013018782052086442 0.0050168390954038597 0.0026003119084556615 0.004347079420120711 0.0044556066088658319
leaf_weight=219.97391350381076 471.73968941904604 86.780737277120352 9.2948182951658964 27.714741351082921 215.66253675892949 19.378471920266747 8.5028315931558609 116.77468985505402 14.674325514584778 44.168358702212572
leaf_count=10794 13455 845 93 696 4300 819 48 3434 180 490
internal_value=0 31.5736 11.5864 9.16701 29.0866 6.70963 47.8906 26.7145 45.3073 45.5131
internal_weight=0 949.8 284.865 267.067 804.177 239.352 17.7976 588.514 145.623 130.949
internal_count=35154 22704 12450 12309 21189 11613 141 16889 1515 1335
shrinkage=0.0001


Tree=4
num_leaves=31
num_cat=0
split_feature=14 4 12 4 4 4 4 4 4 4 4 4 4 4 4 4 4 4 4 4 4 4 4 4 4 4 4 4 4 15
split_gain=68857.3 47588.3 15685.2 2526.51 2122.24 1930.35 1475.53 1089.83 999.241 989.745 894.239 1040.55 788.572 773.331 759.025 1609.43 1843.43 998.71 940.703 1263.95 1166.95 1222.72 691.962 1344.01 1239.17 1242.28 1053.12 747.101 634.919 652.084
threshold=1.0000000180025095e-35 173.42500000000004 1.0000000180025095e-35 113.17500000000003 57.515000000000008 60.045000000000009 58.505000000000003 77.055000000000021 73.915000000000006 69.555000000000021 78.435000000000016 79.075000000000003 71.815000000000012 58.965000000000011 99.785000000000011 87.105000000000004 88.50500000000001 98.135000000000005 112.09500000000001 110.19500000000001 126.80000000000003 121.63500000000001 62.425000000000004 65.165000000000006 67.825000000000003 69.215000000000018 63.775000000000013 68.855000000000004 143.41000000000003 1.0000000180025095e-35
decision_type=2 2 2 2 2 2 2 2 2 2 2 2 2 2 2 2 2 2 2 2 2 2 2 2 2 2 2 2 2 2
left_child=1 2 3 6 -4 13 -1 8 9 -8 -9 -12 -11 -6 15 22 -17 -18 19 -16 21 -20 -7 26 -25 27 -24 -26 29 -22
right_child=-2 -3 4 -5 5 14 7 10 -10 12 11 -13 -14 -15 18 16 17 -19 20 -21 28 -23 23 24 25 -27 -28 -29 -30 -31
leaf_value=0.0014902573640990593 1.9543948059794897e-05 0.0041024582367057286 0.00058787207449807137 0.0036177455333686868 0.0025520630522722063 0.001466429258083337 0.0032878802379280318 0.0016566854981171692 0.0037763230841277172 0.0015438448444880376 0.0039967880614509487 0.002827416247708635 0.0029314624085481143 0.0038752064259411825 0.0024423430472704662 0.00046866426442558943 0.0020355967218218742 0.00098194421973005295 0.0020126052504978163 0.0034891817610486521 0.0031739535412605873 0.00060434726637905117 0.0021131576946986242 0.0013483625599074297 0.0026296969503142552 0.0022230406096091638 0.0036053316811093896 0.0041815721228120328 0.0020112549425874951 0.0022019001404699435
leaf_weight=6.8341923374682656 89.635304432362318 254.91964161768556 7.8877580463886252 68.743795631453395 8.1998266149312276 10.407072683796285 46.544053109362721 6.1874086149036875 26.653721198439598 6.6116661913692978 7.9642174933105698 170.86772229522467 10.76131024584174 9.5756429322063905 74.842678606510162 9.5358641576021892 86.539585398510098 10.039523683488367 30.875493984669447 13.634993635118006 16.607856828719378 7.703756568953394 7.3684661369770792 15.005780909210442 7.9667786899954063 177.84524473361671 13.207794303074477 5.0804375689476728 18.02220768481493 11.807713687419893
leaf_count=274 4929 3684 387 1319 244 421 1045 238 470 262 123 4607 279 160 2308 479 3016 454 1083 280 392 377 251 624 231 5867 256 70 632 392
internal_value=0 28.9732 25.5342 30.7407 22.1619 22.4023 29.4174 29.7773 32.6196 30.4747 28.386 28.7949 24.0337 32.6484 22.0496 21.1875 17.951 19.2607 23.7541 26.0367 21.3787 17.314 22.6373 23.0037 22.2335 22.9214 30.7098 32.3398 24.7555 27.7003
internal_weight=0 1148.24 893.323 351.168 542.154 534.267 282.424 275.59 90.5708 63.917 185.019 178.832 17.373 17.7755 516.491 342.997 106.115 96.5791 173.495 88.4777 85.017 38.5793 236.882 226.475 205.898 190.892 20.5763 13.0472 46.4378 28.4156
internal_count=35154 30225 26541 8617 17924 17537 7298 7024 2056 1586 4968 4730 541 404 17133 11669 3949 3470 5464 2588 2876 1460 7720 7299 6792 6168 507 301 1416 784
shrinkage=0.0001


Tree=5
num_leaves=31
num_cat=0
split_feature=1 1 1 1 1 1 1 1 1 12 9 1 1 1 12 1 1 12 1 12 9 1 1 1 12 1 1 12 1 1
split_gain=283102 32376.7 24349.9 4142.12 4015.15 3064.35 1428.07 1323.99 1385.89 1039.65 658.502 1489.74 634.812 619.333 575.377 497.159 1310.38 681.239 490.562 421.59 309.322 294.654 270.606 551.068 473.226 732.345 263.271 260.14 544.088 221.859
threshold=51.500000000000007 66.500000000000014 34.500000000000007 44.500000000000007 55.500000000000007 73.500000000000014 45.500000000000007 49.500000000000007 48.500000000000007 1.0000000180025095e-35 1.0000000180025095e-35 38.500000000000007 54.500000000000007 35.500000000000007 1.0000000180025095e-35 64.500000000000014 63.500000000000007 1.0000000180025095e-35 32.500000000000007 1.0000000180025095e-35 1.0000000180025095e-35 56.500000000000007 59.500000000000007 58.500000000000007 1.0000000180025095e-35 57.500000000000007 43.500000000000007 1.0000000180025095e-35 65.500000000000014 57.500000000000007
decision_type=2 2 2 2 2 2 2 2 2 2 2 2 2 2 2 2 2 2 2 2 2 2 2 2 2 2 2 2 2 2
left_child=2 4 18 10 12 20 19 8 -8 -9 11 -4 -2 -12 -14 16 21 -18 -1 -5 -3 -6 23 24 25 -23 -15 -17 -29 -26
right_child=1 5 3 6 15 -7 7 9 -10 -11 13 -13 14 26 -16 27 17 -19 -20 -21 -22 22 -24 -25 29 -27 -28 28 -30 -31
leaf_value=-2.9070168200938659e-05 0.0025163829969428483 0.0044419635108997879 0.0023003833861674123 0.0019294352668353769 0.0028687770837738302 0.0045174069128343184 0.0016811441643570513 0.0014022746798126105 0.0004075358592671166 0.0025791650994854824 -0.00010186440888867572 0.00054411722864478257 0.0024940891576973319 0.0010476292687340576 0.0012229750101089298 0.0037656485705772321 0.0028981282318524268 0.0015037198163570704 0.00052117835580852681 0.0029709220800983424 0.0039354905621137417 0.0032728315819153843 0.0031498596806273909 0.0037619407615910034 0.0031220591858744998 0.0018368639035623794 0.00048219242123079264 0.0036758426636205209 0.0026261557471438024 0.0036626784445782357
leaf_weight=224.24376053549349 56.102950045838952 13.170538652688263 11.323640223592522 5.3565902207046756 20.1453642770648 325.06343363597989 42.71764649823308 10.850892912596462 10.680060816928743 24.350754681974649 5.6418903917074195 8.4220405239611846 6.2871895767748329 70.993296949192882 8.2129510678350925 22.507151063531637 7.2539058942347747 6.7768716849386692 17.464098574593663 14.164147835224867 142.83719327114522 9.6727296486496908 81.981313165277243 28.160952378064394 13.500123219564559 5.6123552024364463 9.3148896098136884 12.961249696090819 7.9771001897752276 17.342104472219944
leaf_count=12389 1678 145 365 191 533 3316 1629 443 541 714 314 417 189 3149 350 395 189 270 866 361 2270 217 1939 497 323 205 465 240 230 324
internal_value=0 38.3181 6.98337 14.7569 30.2487 43.4256 19.1087 17.4028 14.2641 22.1639 10.3053 15.5129 23.6394 9.10895 17.7412 32.2438 31.5475 22.2463 0.106869 26.8513 39.7825 32.2872 32.7513 34.1336 32.0056 27.4558 9.82045 35.2963 32.7593 34.2604
internal_weight=0 785.565 455.524 213.816 304.494 481.071 108.12 88.5994 53.3977 35.2016 105.696 19.7457 70.6031 85.9501 14.5001 233.891 190.446 14.0308 241.708 19.5207 156.008 176.415 156.27 74.2883 46.1273 15.2851 80.3082 43.4455 20.9383 30.8422
internal_count=35154 13310 21844 8589 7579 5731 3879 3327 2170 1157 4710 782 2217 3928 539 5362 4497 459 13255 552 2415 4038 3505 1566 1069 422 3614 865 470 647
shrinkage=0.0001


Tree=6
num_leaves=31
num_cat=0
split_feature=14 4 7 4 4 4 4 4 4 4 4 4 4 15 4 4 4 4 4 4 4 4 4 4 4 4 4 4 15 4
split_gain=68087.3 46830.5 4414.37 3145.23 2843.28 2210.97 1992.91 4251.31 2918.16 2379.07 1207.94 1087.4 919.1 758.709 952.178 1171.2 706.081 689.172 2234.51 1620.2 1048.7 994.343 2367.61 1325.32 994.304 1829.04 766.093 853.34 752.816 702.695
threshold=1.0000000180025095e-35 173.42500000000004 1.0000000180025095e-35 57.055000000000007 129.24500000000003 118.23 104.48500000000001 82.945000000000007 88.50500000000001 102.52500000000002 132.18500000000003 58.015000000000008 104.855 1.0000000180025095e-35 86.165000000000006 85.035000000000011 85.035000000000011 89.185000000000016 99.215000000000018 94.325000000000003 83.545000000000016 100.06500000000001 101.88500000000001 106.355 79.075000000000003 80.485000000000014 74.995000000000019 66.215000000000018 1.0000000180025095e-35 68.52500000000002
decision_type=2 2 2 2 2 2 2 2 2 2 2 2 2 2 2 2 2 2 2 2 2 2 2 2 2 2 2 2 2 2
left_child=1 2 3 -1 5 11 7 -5 13 -10 12 -4 -8 14 15 -9 -15 20 19 -19 24 -20 -23 -24 26 -26 27 -13 -21 -29
right_child=-2 -3 4 6 -6 -7 10 8 9 -11 -12 17 -14 16 -16 -17 -18 18 21 28 -22 22 23 -25 25 -27 -28 29 -30 -31
leaf_value=-0.00010186273484510165 1.9545076419332302e-05 0.0040713914887003195 0.0015024824658439087 0.0025626833392341781 0.003602779040738276 0.0013356431913672004 0.0041673658615006852 0.0012075364104704748 0.0022423132236353335 0.00052638081180390991 0.0021321421707748644 0.003072750830251414 0.0027918705831290851 -0.0001018657534803827 0.0006338108269950156 0.0029553343999874516 0.0011537734069486875 0.0025232079273520974 0.0039976985793729993 0.0018804931990625945 0.0032978820583287288 0.00085867014841502405 0.0034944269807690989 0.0025753327422039268 0.00075057913503732466 0.0026582352224374566 0.003285809865814985 0.0014803884704803114 0.00059561563020159552 0.0025936891843482456
leaf_weight=5.1702046282589427 89.634481785818934 256.81644143909216 6.782092045992612 208.26134492643178 39.650539228692651 11.353830426931379 5.0973274596035472 8.3097759895026702 120.68270042166114 8.6596858408302051 29.223256040364504 35.988195944577456 103.40367032028735 6.8324541877955225 7.3951372168958178 7.1181658804416648 12.998389186337588 31.087207851931453 7.9624323304742566 10.977663489058616 49.607482252642512 5.6639261599630109 28.742898972705007 34.546203013509512 6.3821208905428675 23.65311230905354 35.330748261883855 6.8767885882407418 7.80008072964847 32.292664267122746
leaf_count=288 4929 3684 270 6112 754 470 69 355 3927 428 981 874 2801 380 358 181 563 923 121 396 1096 261 578 1008 301 671 783 275 380 937
internal_value=0 28.8063 25.4002 23.5237 28.0203 27.0726 23.7687 22.5882 18.9089 21.2743 27.0279 27.5537 28.5649 11.7361 15.6675 20.1394 7.2116 27.8219 26.016 20.8019 29.0261 29.3963 28.1745 29.9274 27.6307 22.5288 29.0176 27.2122 13.4677 23.9823
internal_weight=0 1154.67 897.85 523.152 374.698 335.047 517.982 380.258 171.996 129.342 137.724 323.694 108.501 42.6539 22.8231 15.4279 19.8308 316.912 126.78 49.865 190.131 76.9155 68.953 63.2891 140.524 30.0352 110.488 75.1576 18.7777 39.1695
internal_count=35154 30225 26541 16443 10098 9344 16155 12304 6192 4355 3851 8874 2870 1837 894 536 943 8604 3667 1699 4937 1968 1847 1586 3841 972 2869 2086 776 1212
shrinkage=0.0001


Tree=7
num_leaves=31
num_cat=0
split_feature=1 1 1 4 3 1 1 1 4 4 1 1 1 4 4 4 3 4 4 4 4 1 4 1 4 1 4 1 3 7
split_gain=280013 38531.4 17778.4 9854.72 6441.61 3022.94 2871.88 3523.79 2831.58 2788.99 2300.73 2284.31 2160.07 1919.04 3213.22 1409.8 1373.81 1368.69 2393.05 2091.78 1311.74 1264.49 1260.43 1413.63 1245.79 1419.02 1241.97 1223.87 837.099 832.13
threshold=49.500000000000007 66.500000000000014 34.500000000000007 132.18500000000003 1.0000000180025095e-35 73.500000000000014 57.500000000000007 59.500000000000007 126.80000000000003 85.50500000000001 44.500000000000007 48.500000000000007 64.500000000000014 173.42500000000004 106.355 90.445000000000007 1.0000000180025095e-35 73.315000000000012 96.50500000000001 114.18500000000002 72.115000000000023 68.500000000000014 89.465000000000018 61.500000000000007 218.37500000000003 53.500000000000007 63.285000000000004 59.500000000000007 1.0000000180025095e-35 1.0000000180025095e-35
decision_type=2 2 2 2 2 2 2 2 2 2 2 2 2 2 2 2 2 2 2 2 2 2 2 2 2 2 2 2 2 2
left_child=2 3 -1 4 6 8 17 29 15 12 -4 13 -9 14 -12 20 24 26 -19 -20 -3 -17 -11 -24 25 -5 -2 -6 -22 -8
right_child=1 5 10 16 27 -7 7 9 -10 22 11 -13 -14 -15 -16 21 -18 18 19 -21 28 -23 23 -25 -26 -27 -28 -29 -30 -31
leaf_value=1.0516901361807547e-05 0.0014602728875344043 0.0030028367987482685 0.0010266377683295794 0.0024920112334818425 0.0029691140605843532 0.0044837567018209661 0.0030044510330742872 0.00084217366874788345 0.00442555288916807 0.0038098837118710023 0.0020781431009108814 0.00040605713761501295 0.0027077924154210748 0.0032841423936986213 -0.00010187303915617849 0.001704109505886151 0.0044448229427092312 0.0012036034721819159 0.0027130895552952032 0.00073161932219241845 0.0038669177667889068 0.003338086165537386 0.0013223418897722521 0.0028722885261620234 0.0027659595614628373 0.0038747955840370469 0.003019385686161005 0.0045250827117678397 0.0048716709910616336 0.0039467657105982344
leaf_weight=242.06729793176055 6.9653203431516912 14.01848106458783 106.05981959961355 8.3896027654409391 7.0862122569233206 327.44779503531754 17.514015158638358 17.28856861777604 69.696084210649133 9.735512647777794 44.920617276802659 10.711035467684267 9.6816073153167945 9.6403849478811008 7.9591206964105359 6.0248728208243874 20.341579711064696 37.506466777995229 28.990216599777341 6.5272542387247077 34.2699850872159 22.141486778855324 7.6398815363645545 25.609192693606019 17.073408121243119 64.299921402707696 19.173241959884763 17.637133466079831 10.938708361238239 20.156474962830544
leaf_count=13255 279 347 4710 250 178 3316 435 796 741 165 1528 541 268 212 441 226 212 1597 805 308 557 475 316 669 461 1038 474 172 69 313
internal_value=0 37.3732 5.69542 29.2398 25.5358 43.1075 23.7119 27.2891 39.5013 23.0901 13.243 17.554 15.1188 19.8658 17.5002 35.7099 37.028 19.8295 17.6068 23.4894 38.4797 29.8857 28.0916 25.1615 35.3465 37.152 26.0392 40.7911 41.1003 35.0866
internal_weight=0 826.153 421.358 341.616 231.511 484.537 206.788 107.625 157.09 69.9548 179.291 73.2312 26.9702 62.5201 52.8797 87.3935 110.105 99.1625 73.0239 35.5175 59.2272 28.1664 42.9846 33.2491 89.7629 72.6895 26.1386 24.7233 45.2087 37.6705
internal_count=35154 14467 20687 8736 6775 5731 6425 2962 2415 2214 7432 2722 1064 2181 1969 1674 1961 3463 2710 1113 973 701 1150 985 1749 1288 753 350 626 748
shrinkage=0.0001


Tree=8
num_leaves=31
num_cat=0
split_feature=1 1 1 1 15 1 1 2 16 13 15 1 16 1 16 1 2 1 13 1 15 1 2 1 1 1 1 13 1 1
split_gain=278081 38118.4 17742.2 5904.09 3956.56 2991.93 2985.43 2548.19 2353.86 2238.15 2035.66 1646.47 1635.92 1134.84 971.735 1607.48 885.754 790.018 969.906 751.539 743.766 1259.35 563.493 553.958 552.504 744.66 550.782 536.055 533.14 452.561
threshold=49.500000000000007 66.500000000000014 34.500000000000007 55.500000000000007 1.0000000180025095e-35 44.500000000000007 73.500000000000014 1.0000000180025095e-35 1.0000000180025095e-35 1.0000000180025095e-35 1.0000000180025095e-35 48.500000000000007 1.0000000180025095e-35 60.500000000000007 1.0000000180025095e-35 28.500000000000004 1.0000000180025095e-35 62.500000000000007 1.0000000180025095e-35 46.500000000000007 1.0000000180025095e-35 65.500000000000014 1.0000000180025095e-35 46.500000000000007 44.500000000000007 39.500000000000007 58.500000000000007 1.0000000180025095e-35 35.500000000000007 41.500000000000007
decision_type=2 2 2 2 2 2 2 2 2 2 2 2 2 2 2 2 2 2 2 2 2 2 2 2 2 2 2 2 2 2
left_child=2 3 14 7 23 9 22 12 13 28 -9 16 -2 26 -1 -16 19 18 -10 -7 -15 -22 -3 24 25 -4 27 -5 -6 -30
right_child=1 6 4 8 5 11 -8 10 17 -11 -12 -13 -14 20 15 -17 -18 -19 -20 -21 21 -23 -24 -25 -26 -27 -28 -29 29 -31
leaf_value=-5.2465609249385547e-05 0.0022578661846435737 0.0038246878962980113 0.001133079600944636 0.0031344401284554842 0.0018861466335209237 0.0028088689002390517 0.0044639915255709215 0.0017843931055842308 0.0035370457521454826 0.0026070227633722492 0.0040378178885665779 0.00080882944912438813 0.0010743516499388717 0.0029660300159144487 -0.00010186410898564916 0.0016327938210172672 0.0037497889644701964 0.0039956161434767856 0.0020528679831770245 0.0018400524101186118 0.0019587414843392852 0.0034302088527583202 0.0042594418169171729 0.00025321163355344298 0.0014852660288432913 0.00035992524605113317 0.0035081169746707121 0.0021975014258259909 0.00056405047107272333 0.0012459127379668992
leaf_weight=220.30101875215769 73.776471361517906 117.77082651294768 26.43225534260273 43.707348752766848 5.473220592364668 18.690823525190353 328.86467252112925 5.7684261426329622 34.386392952874303 10.04175935871899 13.142061710357666 5.9738932996988288 13.875906530767677 40.786590624600649 12.359832316637041 9.4089001789689046 5.6499379426240912 35.849022023379803 5.0496930927038184 14.007791941985486 23.761641409248117 7.7014160249382249 39.917513053864241 15.32143593393266 13.71122959628701 23.561934562399983 37.676069283857942 7.0981058403849593 24.509299164637923 16.146287394687533
leaf_count=12205 2368 1934 1145 1022 197 499 3316 211 663 288 189 278 606 1018 688 362 98 530 171 508 829 157 481 795 544 1199 741 231 1199 682
internal_value=0 37.2352 5.69172 29.1547 13.2248 17.388 42.9247 22.9764 31.9442 12.541 33.5044 23.5305 20.7051 29.7828 0.105157 6.47891 25.9361 36.5586 33.47 23.9384 26.8423 23.1892 39.3474 7.93082 9.22923 7.68697 32.1839 30.0354 9.59588 8.34851
internal_weight=0 829.132 421.59 342.579 179.52 100.493 486.553 106.563 236.016 56.1706 18.9105 44.3224 87.6524 160.731 242.07 21.7687 38.3486 75.2851 39.4361 32.6986 72.2496 31.4631 157.688 79.0269 63.7054 49.9942 88.4815 50.8055 46.1288 40.6556
internal_count=35154 14467 20687 8736 7432 3749 5731 3374 5362 2366 400 1383 2974 3998 13255 1050 1105 1364 834 1007 2004 986 2415 3683 2888 2344 1994 1253 2078 1881
shrinkage=0.0001


Tree=9
num_leaves=14
num_cat=0
split_feature=9 14 16 16 7 7 7 17 17 7 17 7 7
split_gain=84251.3 16621.7 5039.06 2134.72 1390.25 1089.03 917.82 4032.6 412.476 135.946 18.8458 202.971 201.014
threshold=1.0000000180025095e-35 1.0000000180025095e-35 1.0000000180025095e-35 1.0000000180025095e-35 1.0000000180025095e-35 1.0000000180025095e-35 1.0000000180025095e-35 1.0000000180025095e-35 1.0000000180025095e-35 1.0000000180025095e-35 1.0000000180025095e-35 1.0000000180025095e-35 1.0000000180025095e-35
decision_type=2 2 2 2 2 2 2 2 2 2 2 2 2
left_child=1 3 6 10 -4 -5 8 -8 -2 -3 12 -12 -1
right_child=2 9 4 5 -6 -7 7 -9 -10 -11 11 -13 -14
leaf_value=0.0013421222237371493 0.0027561078969747543 0.00014448877650738445 0.0032399380260329522 0.0018405023777585162 0.0037086663311822173 0.002996889882437348 0.0034045906409792088 0.0026375806065269602 0.0029551152755720035 -0.00010184560517834903 0.0016515316764813012 0.0013195850349081932 0.0016642785389150135
leaf_weight=45.211529282853007 180.84023915417492 44.170833056792617 122.09832629561424 16.805448958650231 131.35044143535197 15.801010398194192 173.77178629674017 113.19860585592687 245.59293827600777 45.461640622466803 58.952801991254091 26.791520798578858 33.884244604036212
leaf_count=1868 4877 2374 2693 609 2277 388 3557 3174 6126 2555 2253 1112 1291
internal_value=0 11.489 30.9984 16.6158 34.8286 24.0088 29.6377 31.0204 28.7072 0.195478 15.1534 15.4781 14.8013
internal_weight=0 287.079 966.852 197.447 253.449 32.6065 713.404 286.97 426.433 89.6325 164.84 85.7443 79.0958
internal_count=35154 12450 22704 7521 4970 997 17734 6731 11003 4929 6524 3365 3159
shrinkage=0.0001


Tree=10
num_leaves=31
num_cat=0
split_feature=1 1 1 1 15 0 1 1 0 10 2 0 0 15 1 0 0 1 0 10 1 0 0 1 0 0 0 1 0 0
split_gain=275070 37610.4 17642.7 5834.46 3930.84 2999.52 3574.74 2943.42 2643.26 4341.15 2521.54 2019.51 3593.5 2011.81 1633.39 1476.64 1409.63 1333.57 1552.04 1224.72 1000.28 962.304 1701.39 1021.04 956.608 892.236 1437.08 864.74 821.918 1284.61
threshold=49.500000000000007 66.500000000000014 34.500000000000007 55.500000000000007 1.0000000180025095e-35 27678.500000000004 44.500000000000007 73.500000000000014 21030.000000000004 1.0000000180025095e-35 1.0000000180025095e-35 6318.5000000000009 15199.500000000002 1.0000000180025095e-35 58.500000000000007 31926.000000000004 70119.000000000015 46.500000000000007 62580.500000000007 1.0000000180025095e-35 40.500000000000007 10289.500000000002 12299.500000000002 54.500000000000007 25702.500000000004 59978.500000000007 47705.000000000007 57.500000000000007 6318.5000000000009 21321.000000000004
decision_type=2 2 2 2 2 2 2 2 2 2 2 2 2 2 2 2 2 2 2 2 2 2 2 2 2 2 2 2 2 2
left_child=2 3 -1 10 19 28 15 -3 9 11 21 -5 -13 -12 -14 -7 25 -8 -19 -4 -17 -2 -23 -24 -15 26 -10 -28 -6 -30
right_child=1 7 4 8 5 6 17 -9 16 -11 13 12 14 24 -16 20 -18 18 -20 -21 -22 22 23 -25 -26 -27 27 -29 29 -31
leaf_value=1.0369262345393859e-05 0.001088611599906911 0.0039077251644729387 0.00096310842826308717 0.0028617500954449173 -0.00010187959672218042 0.0029400859609219347 0.0034778292370029038 0.0044314397653786169 0.0034670078395312681 0.0038455113035845332 0.0017757345671529916 -0.00010189252690332744 0.0037128247643067086 0.0047062962452790102 0.0014379907728990673 0.00058748373051986072 0.0018091641846503933 0.0014679937807569887 0.0034797811696562508 -0.0001018798052716041 0.0017310516397411508 0.0038731536875337889 0.0021877588910131488 0.0010670250740776007 0.0029715965218280386 0.0037855412204057014 0.0035417749512343614 0.0023905154019536953 0.0015714404550054954 -0.00010188113228008089
leaf_weight=242.38030795939267 9.1397429872304183 158.75033364631236 66.409630121663213 14.685763224959372 6.2474653273820904 5.3653711155056945 16.717703893780708 331.22506792284548 97.561385575681925 17.91694993712008 5.7949992064386615 9.6611400637775677 5.7046666350215656 7.9204290527850389 7.0660038460046053 15.783923368901016 5.6936206147074691 10.396512974053623 6.0758601129055014 12.894765187054871 14.840769015252588 5.4745809957385054 64.154653189703822 9.3085192274302226 5.3103285636752844 46.183110907673836 8.9586978293955308 24.010749032720923 19.507639212533835 5.9986612703651181
leaf_count=13255 396 2415 2971 377 345 136 331 3316 1924 286 211 530 99 59 280 765 205 412 121 712 552 87 2086 405 130 764 170 727 756 331
internal_value=0 36.9881 5.67534 28.9824 13.168 17.3075 21.0008 42.6176 31.7461 25.6718 22.8553 19.5012 13.533 33.2951 24.5416 14.0977 33.5788 28.4862 22.1004 7.89943 11.4166 20.6001 21.7249 20.4575 40.1005 34.0778 32.7412 27.0334 9.26109 11.779
internal_weight=0 834.521 422.619 344.545 180.238 100.934 69.1801 489.975 237.442 55.0345 107.103 37.1176 22.4318 19.0258 12.7707 35.9901 182.408 33.1901 16.4724 79.3044 30.6247 88.0775 78.9378 73.4632 13.2308 176.714 130.531 32.9694 31.7538 25.5063
internal_count=35154 14467 20687 8736 7432 3749 2317 5731 5362 1572 3374 1286 909 400 379 1453 3790 864 533 3683 1317 2974 2578 2491 189 3585 2821 897 1432 1087
shrinkage=0.0001


Tree=11
num_leaves=31
num_cat=0
split_feature=4 5 2 5 16 5 5 5 4 4 5 17 4 5 4 4 4 5 5 4 4 17 5 5 4 4 5 4 5 4
split_gain=59861.9 50853.2 35759.5 15446.2 8858.49 5835.84 3388.58 3342.75 3213.75 3192.89 2225.92 2358.46 2079.62 2039.39 2029.77 2027.89 1924.54 1743.14 1683.87 1918.23 1565.57 1560.18 1522.42 2805.55 2391.49 2446.42 2107.3 1462.59 1446.36 1282.74
threshold=173.42500000000004 1.0000000180025095e-35 1.0000000180025095e-35 19.550000000000004 1.0000000180025095e-35 34.750000000000007 37.550000000000004 24.950000000000003 103.83500000000002 129.24500000000003 24.250000000000004 1.0000000180025095e-35 76.305000000000021 32.850000000000001 120.62500000000001 60.045000000000009 121.63500000000001 22.850000000000005 23.550000000000004 71.815000000000012 88.725000000000009 1.0000000180025095e-35 31.550000000000004 30.750000000000004 117.48500000000001 99.50500000000001 39.250000000000007 85.50500000000001 32.45000000000001 60.57500000000001
decision_type=2 10 2 10 2 10 10 10 2 2 10 2 2 10 2 2 2 10 10 2 2 2 10 10 2 2 10 2 8 2
left_child=1 -1 3 21 7 12 -4 8 10 14 11 -5 15 28 22 -6 -10 -13 -17 -20 -19 -3 23 29 25 -24 -27 -7 -2 -9
right_child=13 2 6 4 5 27 -8 9 16 -11 -12 17 -14 -15 -16 18 -18 20 19 -21 -22 -23 24 -25 -26 26 -28 -29 -30 -31
leaf_value=0.0045532985941417938 0.0039954048096619175 0.00017840633034273343 0.0038204515453861315 0.00077343074353569783 0.003480045195956437 -0.00010188992148519498 0.0019496498114219762 0.000619800823773739 0.0024714347569121339 0.0027998848084456645 -0.00010187574587117012 0.0011972739338668298 0.0030723525829475882 0.0036010253070476077 0.00043534319831057947 0.00313124840251114 0.0010733267900112659 0.0029090602880190845 -0.00010189273224456341 0.0021885022632554211 0.00092774016721988868 0.0015305963369536216 0.0017232615599786195 0.0029637151128977493 0.0035879848047050771 -0.00010188343514638736 0.0018894467189011406 0.0016872840384746948 0.0046282424552317293 0.0019508629955023091
leaf_weight=89.988114861771464 119.50218846648932 58.236157776787877 110.96231489814818 49.723801031708717 7.5942229311913279 7.3179024774581221 10.607478220015762 7.5385067723691455 33.826622312888503 37.497144281864166 13.878928393125532 25.125982969999313 104.54925007745624 91.091649567708373 10.12688724696636 5.0481096319854286 13.887983951717613 16.261898996308449 7.5106151867657882 7.1259550713002682 5.2839031945914021 9.9978669099509698 113.27080552652478 28.394642278552055 5.8976670652627936 15.113432843238117 8.1961586698889715 12.162957593798636 51.75711253657937 182.87125067412853
leaf_count=800 1686 3099 1769 2329 147 402 368 362 1006 985 768 1066 2450 1645 505 116 606 411 412 230 238 392 4199 704 109 833 291 453 408 6365
internal_value=0 22.858 20.6108 18.1434 19.5094 26.3074 36.5722 17.695 13.7884 19.2044 10.8217 12.5265 28.6947 39.8332 18.3165 20.9191 20.645 17.632 15.5638 10.1321 24.2316 3.76534 18.7079 20.3644 16.1641 15.3127 5.98311 10.1519 41.8666 18.9816
internal_weight=0 997.997 908.008 786.439 718.205 151.309 121.57 566.896 157.989 408.906 110.275 96.3956 131.828 262.351 371.409 27.2789 47.7146 46.6718 19.6847 14.6366 21.5458 68.234 361.282 218.804 142.478 136.58 23.3096 19.4809 171.259 190.41
internal_count=35154 31415 30615 28478 24987 4210 2137 20777 6424 14353 4812 4044 3355 3739 13368 905 1612 1715 758 642 649 3491 12863 7431 5432 5323 1124 855 2094 6727
shrinkage=0.0001


end of trees

feature importances:
avg_glucose_level=79
age=64
id=38
bmi=13
gender_Male=12
Residence_type_Urban=11
work_type_Govt_job=9
smoking_status_formerly_smoked=9
work_type_Self-employed=8
work_type_Private=7
smoking_status_smokes=7
hypertension=6
gender_Female=6
smoking_status_never_smoked=6
heart_disease=5
ever_married_Yes=5
work_type_children=4

parameters:
[boosting: gbdt]
[objective: binary]
[metric: auc]
[tree_learner: serial]
[device_type: cpu]
[data: ]
[valid: ]
[num_iterations: 100]
[learning_rate: 0.0001]
[num_leaves: 31]
[num_threads: 8]
[max_depth: -1]
[min_data_in_leaf: 20]
[min_sum_hessian_in_leaf: 5]
[bagging_fraction: 0.6]
[pos_bagging_fraction: 1]
[neg_bagging_fraction: 1]
[bagging_freq: 0]
[bagging_seed: 3]
[feature_fraction: 0.3]
[feature_fraction_bynode: 1]
[feature_fraction_seed: 2]
[early_stopping_round: 0]
[first_metric_only: 0]
[max_delta_step: 0]
[lambda_l1: 0]
[lambda_l2: 0]
[min_gain_to_split: 0]
[drop_rate: 0.1]
[max_drop: 50]
[skip_drop: 0.5]
[xgboost_dart_mode: 0]
[uniform_drop: 0]
[drop_seed: 4]
[top_rate: 0.2]
[other_rate: 0.1]
[min_data_per_group: 100]
[max_cat_threshold: 32]
[cat_l2: 10]
[cat_smooth: 10]
[max_cat_to_onehot: 4]
[top_k: 20]
[monotone_constraints: ]
[feature_contri: ]
[forcedsplits_filename: ]
[forcedbins_filename: ]
[refit_decay_rate: 0.9]
[cegb_tradeoff: 1]
[cegb_penalty_split: 0]
[cegb_penalty_feature_lazy: ]
[cegb_penalty_feature_coupled: ]
[verbosity: 0]
[max_bin: 255]
[max_bin_by_feature: ]
[min_data_in_bin: 3]
[bin_construct_sample_cnt: 200000]
[histogram_pool_size: -1]
[data_random_seed: 1]
[output_model: LightGBM_model.txt]
[snapshot_freq: -1]
[input_model: ]
[output_result: LightGBM_predict_result.txt]
[initscore_filename: ]
[valid_data_initscores: ]
[pre_partition: 0]
[enable_bundle: 1]
[max_conflict_rate: 0]
[is_enable_sparse: 1]
[sparse_threshold: 0.8]
[use_missing: 1]
[zero_as_missing: 0]
[two_round: 0]
[save_binary: 0]
[header: 0]
[label_column: ]
[weight_column: ]
[group_column: ]
[ignore_column: ]
[categorical_feature: ]
[predict_raw_score: 0]
[predict_leaf_index: 0]
[predict_contrib: 0]
[num_iteration_predict: -1]
[pred_early_stop: 0]
[pred_early_stop_freq: 10]
[pred_early_stop_margin: 10]
[convert_model_language: ]
[convert_model: gbdt_prediction.cpp]
[num_class: 1]
[is_unbalance: 0]
[scale_pos_weight: 54.4043]
[sigmoid: 1]
[boost_from_average: 1]
[reg_sqrt: 0]
[alpha: 0.9]
[fair_c: 1]
[poisson_max_delta_step: 0.7]
[tweedie_variance_power: 1.5]
[max_position: 20]
[lambdamart_norm: 1]
[label_gain: ]
[metric_freq: 1]
[is_provide_training_metric: 0]
[eval_at: ]
[multi_error_top_k: 1]
[num_machines: 1]
[local_listen_port: 12400]
[time_out: 120]
[machine_list_filename: ]
[machines: ]
[gpu_platform_id: -1]
[gpu_device_id: -1]
[gpu_use_dp: 0]

end of parameters

pandas_categorical:[]
